0.0696784189276953,0.465009473572521,0.0527442473275944,-0.426230143921218,-0.00399110239600816,-0.309452556381969,0.264854787506262,0.344592190183156,-0.193968945347315,-0.054718576805641,-0.260680308523192,0.218060248695857,0.450328350204207,-0.317707315733021,0.431913360307629,-0.200095677335573,0.47104660995522,0.157791793992108,0.0431700299684902,-0.06559614581461,-0.134626564806653,-0.0484518338971042,-0.0237570042801194,0.00723528606290862,-0.0710342171285,-0.226734298334169,0.355033379926634,-0.0204707084942328,-0.111085130775766,-0.345751923456145,-0.146435448466362,-0.179233970316855,-0.061416702541319,0.356084853830009,0.145267727324256,0.235474975975958,-0.237802499200436,0.232865921971504,-0.221060030343827,0.0329491881180151,-0.0598664304408184,-0.244122452852432,0.437844998409137,-0.359395283367644,-0.45417745700122,0.313863505168089,0.0500899308342453,-0.446451765391816,0.0612460151891953,0.485699280333585,0.303102388215131,0.486635007526544,0.0799120566888161,-0.379989965987272,-0.311287554648258,0.418875526199195,-0.0767953884507679,0.385736736643737,-0.327772190013222,-0.1487606871222,0.380431962523834,-0.486821439123686,0.392913562217585,-0.283156791300949,0.160654208148606,-0.210773836783712,0.149141619870786,0.0664233779388655,0.266747262022681,0.313346220075281,0.000893990520526231,0.167861147373587,-0.676846592646553,0.32905536490513,-0.224751261733204,0.018074976767815,-0.435619319332403,-0.0473522640435787,-0.0810539873685904,0.406438430398263,-0.0246903605092941,-0.109070297816413,
