-0.214431796224974,-0.0767996618331601,0.125275629572055,0.364996598032485,-0.159137223410026,0.132687629181258,0.0770298660671815,0.338615056254045,-0.0679018110975826,-0.194271395039072,-0.383778714364864,-0.368075844027177,0.211686624089259,0.175191091172656,-0.0114988305979842,-0.440620891585984,-0.27551193536591,-0.407752113215885,-0.432773410481764,-0.127997462565506,0.222217776868706,0.428865359664119,0.0760439483272086,-0.42535022932807,0.139452095641834,0.478660314397081,0.367557169237801,0.183783838706024,-0.0913884574832644,0.206197411700026,-0.33335228913958,0.121860308469169,0.0744206328162994,0.137920725104336,-0.111783074422768,-0.452389998257987,0.389190956457007,0.177222000028295,0.194359415572179,-0.225207875950555,-0.0406104684161484,-0.128607915307683,0.362935792728947,-0.417381854398643,-0.423932780850305,-0.0579979550274983,0.312221509571426,0.141295732601081,-0.464374285914746,0.0850315931048029,0.207479056984221,-0.230879342399957,0.434218599676372,-0.138535464068854,0.344054321264409,0.462634062262606,-0.144574653409602,0.362627432912671,0.428225985346717,-0.134554883333278,-0.328036654063724,0.272154126425286,-0.0879724326913747,0.123778925643269,0.126613438697463,0.206429479469902,0.012629978974827,-0.0924563531954151,0.00802760728792503,0.311961259023991,-0.33821202383084,-0.738171919696223,-0.26822495862735,-0.369818104806987,0.30008899662229,-0.0287418425910075,-0.00698276148937981,0.226382774272755,0.314946042942583,0.507738158361192,0.732088366220958,-0.0239645243546199,
